#ifndef __BASISFUNCTIONSGUASSPOINTS_HPP
#define __BASISFUNCTIONSGUASSPOINTS_HPP

// Automatically generated by codegeneration/basisfunctions_gausspoints.py
//
// Generates the vectors gauss_points[gq] and gauss_weights[gq]
// - stores the points and weights of the gq-point Guass rule
// - the integration is scaled to [0,1]

// Generates the matrices BiG[dg][gq]_[e]
// - dg is the degree of the dG space
// - gq is the number of Gauss quadrature points
// - e is the edge number (0-lower, 1-right, 2-up, 3-left)
//
// - Each matrix BiG_e[i,j] stores the value of the j-th basis function
//   in the i-th Gauss quadrature point alongt the edge e, weighted
//   with corresponding Gauss weight and the inverse of the mass matrix
//   bf.inversemass(j) * phi_j( gauss_point(i) ) * gauss_weight(i)

// Generates the matrices BiGe[dg][gq]
// - stores the value of the basis functions on the edge in
//   the Guass points along the edge
// - dg is the dG degree and gq the number of Gauss points
// - BiGe[i,j] is simply phi_j( gauss_point(i) )

// Generates the matrices BiG[dg][gq]
// - stores the value of the basis functions on the cell in
//   the Guass points
// - dg is the dG degree and gq the number of Gauss points in each direction
// - BiG[i,j] is phi_j( gauss_point(i) )

//------------------------------ Gauss Quadrature

constexpr double gauss_points1[1] = { 0.5 };
constexpr double gauss_weights1[1] = { 1.0 };
constexpr double gauss_points2[2] = { 0.21132486540518713, 0.7886751345948129 };
constexpr double gauss_weights2[2] = { 0.5, 0.5 };
constexpr double gauss_points3[3] = { 0.1127016653792583, 0.5, 0.8872983346207417 };
constexpr double gauss_weights3[3] = { 0.2777777777777778, 0.4444444444444444, 0.2777777777777778 };

//------------------------------ Basis Functions in Gauss Points (edge)

static const Eigen::Matrix<double, 1, 1, Eigen::RowMajor> BiG11_0 = (Eigen::Matrix<double, 1, 1, Eigen::RowMajor>() << 1.0).finished();

static const Eigen::Matrix<double, 1, 1, Eigen::RowMajor> BiG11_1 = (Eigen::Matrix<double, 1, 1, Eigen::RowMajor>() << 1.0).finished();

static const Eigen::Matrix<double, 1, 1, Eigen::RowMajor> BiG11_2 = (Eigen::Matrix<double, 1, 1, Eigen::RowMajor>() << 1.0).finished();

static const Eigen::Matrix<double, 1, 1, Eigen::RowMajor> BiG11_3 = (Eigen::Matrix<double, 1, 1, Eigen::RowMajor>() << 1.0).finished();

static const Eigen::Matrix<double, 2, 3, Eigen::RowMajor> BiG32_0 = (Eigen::Matrix<double, 2, 3, Eigen::RowMajor>() << 0.5, -1.7320508075688772, -3.0, 0.5, 1.7320508075688772, -3.0).finished();

static const Eigen::Matrix<double, 2, 3, Eigen::RowMajor> BiG32_1 = (Eigen::Matrix<double, 2, 3, Eigen::RowMajor>() << 0.5, 3.0, -1.7320508075688772, 0.5, 3.0, 1.7320508075688772).finished();

static const Eigen::Matrix<double, 2, 3, Eigen::RowMajor> BiG32_2 = (Eigen::Matrix<double, 2, 3, Eigen::RowMajor>() << 0.5, -1.7320508075688772, 3.0, 0.5, 1.7320508075688772, 3.0).finished();

static const Eigen::Matrix<double, 2, 3, Eigen::RowMajor> BiG32_3 = (Eigen::Matrix<double, 2, 3, Eigen::RowMajor>() << 0.5, -3.0, -1.7320508075688772, 0.5, -3.0, 1.7320508075688772).finished();

static const Eigen::Matrix<double, 3, 6, Eigen::RowMajor> BiG63_0 = (Eigen::Matrix<double, 3, 6, Eigen::RowMajor>() << 0.2777777777777778, -1.2909944487358058, -1.6666666666666667, 3.333333333333335, 8.333333333333334, 7.745966692414834, 0.4444444444444444, 0.0, -2.6666666666666665, -6.666666666666666, 13.333333333333336, -0.0, 0.2777777777777778, 1.2909944487358058, -1.6666666666666667, 3.333333333333335, 8.333333333333334, -7.745966692414834).finished();

static const Eigen::Matrix<double, 3, 6, Eigen::RowMajor> BiG63_1 = (Eigen::Matrix<double, 3, 6, Eigen::RowMajor>() << 0.2777777777777778, 1.6666666666666667, -1.2909944487358058, 8.333333333333334, 3.333333333333335, -7.745966692414834, 0.4444444444444444, 2.6666666666666665, 0.0, 13.333333333333336, -6.666666666666666, 0.0, 0.2777777777777778, 1.6666666666666667, 1.2909944487358058, 8.333333333333334, 3.333333333333335, 7.745966692414834).finished();

static const Eigen::Matrix<double, 3, 6, Eigen::RowMajor> BiG63_2 = (Eigen::Matrix<double, 3, 6, Eigen::RowMajor>() << 0.2777777777777778, -1.2909944487358058, 1.6666666666666667, 3.333333333333335, 8.333333333333334, -7.745966692414834, 0.4444444444444444, 0.0, 2.6666666666666665, -6.666666666666666, 13.333333333333336, 0.0, 0.2777777777777778, 1.2909944487358058, 1.6666666666666667, 3.333333333333335, 8.333333333333334, 7.745966692414834).finished();

static const Eigen::Matrix<double, 3, 6, Eigen::RowMajor> BiG63_3 = (Eigen::Matrix<double, 3, 6, Eigen::RowMajor>() << 0.2777777777777778, -1.6666666666666667, -1.2909944487358058, 8.333333333333334, 3.333333333333335, 7.745966692414834, 0.4444444444444444, -2.6666666666666665, 0.0, 13.333333333333336, -6.666666666666666, -0.0, 0.2777777777777778, -1.6666666666666667, 1.2909944487358058, 8.333333333333334, 3.333333333333335, -7.745966692414834).finished();

static const Eigen::Matrix<double, 3, 8, Eigen::RowMajor> BiG83_0 = (Eigen::Matrix<double, 3, 8, Eigen::RowMajor>() << 0.2777777777777778, -1.2909944487358058, -1.6666666666666667, 3.333333333333335, 8.333333333333334, 7.745966692414834, -20.000000000000007, -38.729833462074176, 0.4444444444444444, 0.0, -2.6666666666666665, -6.666666666666666, 13.333333333333336, -0.0, 40.0, 0.0, 0.2777777777777778, 1.2909944487358058, -1.6666666666666667, 3.333333333333335, 8.333333333333334, -7.745966692414834, -20.000000000000007, 38.729833462074176).finished();

static const Eigen::Matrix<double, 3, 8, Eigen::RowMajor> BiG83_1 = (Eigen::Matrix<double, 3, 8, Eigen::RowMajor>() << 0.2777777777777778, 1.6666666666666667, -1.2909944487358058, 8.333333333333334, 3.333333333333335, -7.745966692414834, -38.729833462074176, 20.000000000000007, 0.4444444444444444, 2.6666666666666665, 0.0, 13.333333333333336, -6.666666666666666, 0.0, 0.0, -40.0, 0.2777777777777778, 1.6666666666666667, 1.2909944487358058, 8.333333333333334, 3.333333333333335, 7.745966692414834, 38.729833462074176, 20.000000000000007).finished();

static const Eigen::Matrix<double, 3, 8, Eigen::RowMajor> BiG83_2 = (Eigen::Matrix<double, 3, 8, Eigen::RowMajor>() << 0.2777777777777778, -1.2909944487358058, 1.6666666666666667, 3.333333333333335, 8.333333333333334, -7.745966692414834, 20.000000000000007, -38.729833462074176, 0.4444444444444444, 0.0, 2.6666666666666665, -6.666666666666666, 13.333333333333336, 0.0, -40.0, 0.0, 0.2777777777777778, 1.2909944487358058, 1.6666666666666667, 3.333333333333335, 8.333333333333334, 7.745966692414834, 20.000000000000007, 38.729833462074176).finished();

static const Eigen::Matrix<double, 3, 8, Eigen::RowMajor> BiG83_3 = (Eigen::Matrix<double, 3, 8, Eigen::RowMajor>() << 0.2777777777777778, -1.6666666666666667, -1.2909944487358058, 8.333333333333334, 3.333333333333335, 7.745966692414834, -38.729833462074176, -20.000000000000007, 0.4444444444444444, -2.6666666666666665, 0.0, 13.333333333333336, -6.666666666666666, -0.0, 0.0, 40.0, 0.2777777777777778, -1.6666666666666667, 1.2909944487358058, 8.333333333333334, 3.333333333333335, -7.745966692414834, 38.729833462074176, -20.000000000000007).finished();

//------------------------------ Basis Functions in Gauss Points (cell)

static const Eigen::Matrix<double, 3, 4, Eigen::RowMajor> BiG32 = (Eigen::Matrix<double, 3, 4, Eigen::RowMajor>() << 1.0, 1.0, 1.0, 1.0, -0.28867513459481287, -0.28867513459481287, 0.28867513459481287, 0.28867513459481287, -0.28867513459481287, 0.28867513459481287, -0.28867513459481287, 0.28867513459481287).finished();
static const Eigen::Matrix<double, 3, 9, Eigen::RowMajor> BiG33 = (Eigen::Matrix<double, 3, 9, Eigen::RowMajor>() << 1.0, 1.0, 1.0, 1.0, 1.0, 1.0, 1.0, 1.0, 1.0, -0.3872983346207417, -0.3872983346207417, -0.3872983346207417, 0.0, 0.0, 0.0, 0.3872983346207417, 0.3872983346207417, 0.3872983346207417, -0.3872983346207417, 0.0, 0.3872983346207417, -0.3872983346207417, 0.0, 0.3872983346207417, -0.3872983346207417, 0.0, 0.3872983346207417).finished();
static const Eigen::Matrix<double, 6, 4, Eigen::RowMajor> BiG62 = (Eigen::Matrix<double, 6, 4, Eigen::RowMajor>() << 1.0, 1.0, 1.0, 1.0, -0.28867513459481287, -0.28867513459481287, 0.28867513459481287, 0.28867513459481287, -0.28867513459481287, 0.28867513459481287, -0.28867513459481287, 0.28867513459481287, 0.0, 0.0, 0.0, 0.0, 0.0, 0.0, 0.0, 0.0, 0.08333333333333333, -0.08333333333333333, -0.08333333333333333, 0.08333333333333333).finished();
static const Eigen::Matrix<double, 6, 9, Eigen::RowMajor> BiG63 = (Eigen::Matrix<double, 6, 9, Eigen::RowMajor>() << 1.0, 1.0, 1.0, 1.0, 1.0, 1.0, 1.0, 1.0, 1.0, -0.3872983346207417, -0.3872983346207417, -0.3872983346207417, 0.0, 0.0, 0.0, 0.3872983346207417, 0.3872983346207417, 0.3872983346207417, -0.3872983346207417, 0.0, 0.3872983346207417, -0.3872983346207417, 0.0, 0.3872983346207417, -0.3872983346207417, 0.0, 0.3872983346207417, 0.0666666666666667, 0.0666666666666667, 0.0666666666666667, -0.08333333333333333, -0.08333333333333333, -0.08333333333333333, 0.0666666666666667, 0.0666666666666667, 0.0666666666666667, 0.0666666666666667, -0.08333333333333333, 0.0666666666666667, 0.0666666666666667, -0.08333333333333333, 0.0666666666666667, 0.0666666666666667, -0.08333333333333333, 0.0666666666666667, 0.15000000000000002, -0.0, -0.15000000000000002, -0.0, 0.0, 0.0, -0.15000000000000002, 0.0, 0.15000000000000002).finished();
static const Eigen::Matrix<double, 8, 4, Eigen::RowMajor> BiG82 = (Eigen::Matrix<double, 8, 4, Eigen::RowMajor>() << 1.0, 1.0, 1.0, 1.0, -0.28867513459481287, -0.28867513459481287, 0.28867513459481287, 0.28867513459481287, -0.28867513459481287, 0.28867513459481287, -0.28867513459481287, 0.28867513459481287, 0.0, 0.0, 0.0, 0.0, 0.0, 0.0, 0.0, 0.0, 0.08333333333333333, -0.08333333333333333, -0.08333333333333333, 0.08333333333333333, -0.0, 0.0, -0.0, 0.0, -0.0, -0.0, 0.0, 0.0).finished();
static const Eigen::Matrix<double, 8, 9, Eigen::RowMajor> BiG83 = (Eigen::Matrix<double, 8, 9, Eigen::RowMajor>() << 1.0, 1.0, 1.0, 1.0, 1.0, 1.0, 1.0, 1.0, 1.0, -0.3872983346207417, -0.3872983346207417, -0.3872983346207417, 0.0, 0.0, 0.0, 0.3872983346207417, 0.3872983346207417, 0.3872983346207417, -0.3872983346207417, 0.0, 0.3872983346207417, -0.3872983346207417, 0.0, 0.3872983346207417, -0.3872983346207417, 0.0, 0.3872983346207417, 0.0666666666666667, 0.0666666666666667, 0.0666666666666667, -0.08333333333333333, -0.08333333333333333, -0.08333333333333333, 0.0666666666666667, 0.0666666666666667, 0.0666666666666667, 0.0666666666666667, -0.08333333333333333, 0.0666666666666667, 0.0666666666666667, -0.08333333333333333, 0.0666666666666667, 0.0666666666666667, -0.08333333333333333, 0.0666666666666667, 0.15000000000000002, -0.0, -0.15000000000000002, -0.0, 0.0, 0.0, -0.15000000000000002, 0.0, 0.15000000000000002, -0.025819888974716123, 0.0, 0.025819888974716123, 0.03227486121839514, -0.0, -0.03227486121839514, -0.025819888974716123, 0.0, 0.025819888974716123, -0.025819888974716123, 0.03227486121839514, -0.025819888974716123, 0.0, -0.0, 0.0, 0.025819888974716123, -0.03227486121839514, 0.025819888974716123).finished();
static const Eigen::Matrix<double, 4, 3, Eigen::RowMajor> IBC32 = (Eigen::Matrix<double, 4, 3, Eigen::RowMajor>() << 0.25, -0.8660254037844386, -0.8660254037844386, 0.25, -0.8660254037844386, 0.8660254037844386, 0.25, 0.8660254037844386, -0.8660254037844386, 0.25, 0.8660254037844386, 0.8660254037844386).finished();
static const Eigen::Matrix<double, 9, 3, Eigen::RowMajor> IBC33 = (Eigen::Matrix<double, 9, 3, Eigen::RowMajor>() << 0.0771604938271605, -0.3586095690932794, -0.3586095690932794, 0.12345679012345678, -0.5737753105492469, 0.0, 0.0771604938271605, -0.3586095690932794, 0.3586095690932794, 0.12345679012345678, 0.0, -0.5737753105492469, 0.19753086419753085, 0.0, 0.0, 0.12345679012345678, 0.0, 0.5737753105492469, 0.0771604938271605, 0.3586095690932794, -0.3586095690932794, 0.12345679012345678, 0.5737753105492469, 0.0, 0.0771604938271605, 0.3586095690932794, 0.3586095690932794).finished();
static const Eigen::Matrix<double, 4, 6, Eigen::RowMajor> IBC62 = (Eigen::Matrix<double, 4, 6, Eigen::RowMajor>() << 0.25, -0.8660254037844386, -0.8660254037844386, 0.0, 0.0, 3.0, 0.25, -0.8660254037844386, 0.8660254037844386, 0.0, 0.0, -3.0, 0.25, 0.8660254037844386, -0.8660254037844386, 0.0, 0.0, -3.0, 0.25, 0.8660254037844386, 0.8660254037844386, 0.0, 0.0, 3.0).finished();
static const Eigen::Matrix<double, 9, 6, Eigen::RowMajor> IBC63 = (Eigen::Matrix<double, 9, 6, Eigen::RowMajor>() << 0.0771604938271605, -0.3586095690932794, -0.3586095690932794, 0.9259259259259264, 0.9259259259259264, 1.666666666666667, 0.12345679012345678, -0.5737753105492469, 0.0, 1.481481481481482, -1.8518518518518516, -0.0, 0.0771604938271605, -0.3586095690932794, 0.3586095690932794, 0.9259259259259264, 0.9259259259259264, -1.666666666666667, 0.12345679012345678, 0.0, -0.5737753105492469, -1.8518518518518516, 1.481481481481482, -0.0, 0.19753086419753085, 0.0, 0.0, -2.962962962962963, -2.962962962962963, 0.0, 0.12345679012345678, 0.0, 0.5737753105492469, -1.8518518518518516, 1.481481481481482, 0.0, 0.0771604938271605, 0.3586095690932794, -0.3586095690932794, 0.9259259259259264, 0.9259259259259264, -1.666666666666667, 0.12345679012345678, 0.5737753105492469, 0.0, 1.481481481481482, -1.8518518518518516, 0.0, 0.0771604938271605, 0.3586095690932794, 0.3586095690932794, 0.9259259259259264, 0.9259259259259264, 1.666666666666667).finished();
static const Eigen::Matrix<double, 4, 8, Eigen::RowMajor> IBC82 = (Eigen::Matrix<double, 4, 8, Eigen::RowMajor>() << 0.25, -0.8660254037844386, -0.8660254037844386, 0.0, 0.0, 3.0, -0.0, -0.0, 0.25, -0.8660254037844386, 0.8660254037844386, 0.0, 0.0, -3.0, 0.0, -0.0, 0.25, 0.8660254037844386, -0.8660254037844386, 0.0, 0.0, -3.0, -0.0, 0.0, 0.25, 0.8660254037844386, 0.8660254037844386, 0.0, 0.0, 3.0, 0.0, 0.0).finished();
static const Eigen::Matrix<double, 9, 8, Eigen::RowMajor> IBC83 = (Eigen::Matrix<double, 9, 8, Eigen::RowMajor>() << 0.0771604938271605, -0.3586095690932794, -0.3586095690932794, 0.9259259259259264, 0.9259259259259264, 1.666666666666667, -4.303314829119354, -4.303314829119354, 0.12345679012345678, -0.5737753105492469, 0.0, 1.481481481481482, -1.8518518518518516, -0.0, 0.0, 8.606629658238703, 0.0771604938271605, -0.3586095690932794, 0.3586095690932794, 0.9259259259259264, 0.9259259259259264, -1.666666666666667, 4.303314829119354, -4.303314829119354, 0.12345679012345678, 0.0, -0.5737753105492469, -1.8518518518518516, 1.481481481481482, -0.0, 8.606629658238704, 0.0, 0.19753086419753085, 0.0, 0.0, -2.962962962962963, -2.962962962962963, 0.0, -0.0, -0.0, 0.12345679012345678, 0.0, 0.5737753105492469, -1.8518518518518516, 1.481481481481482, 0.0, -8.606629658238704, 0.0, 0.0771604938271605, 0.3586095690932794, -0.3586095690932794, 0.9259259259259264, 0.9259259259259264, -1.666666666666667, -4.303314829119354, 4.303314829119354, 0.12345679012345678, 0.5737753105492469, 0.0, 1.481481481481482, -1.8518518518518516, 0.0, 0.0, -8.606629658238703, 0.0771604938271605, 0.3586095690932794, 0.3586095690932794, 0.9259259259259264, 0.9259259259259264, 1.666666666666667, 4.303314829119354, 4.303314829119354).finished();

//------------------------------ Edge Basis Functions in Gauss Points

static const Eigen::Matrix<double, 1, 1, Eigen::RowMajor> BiGe11 = (Eigen::Matrix<double, 1, 1, Eigen::RowMajor>() << 1.0).finished();

static const Eigen::Matrix<double, 2, 2, Eigen::RowMajor> BiGe22 = (Eigen::Matrix<double, 2, 2, Eigen::RowMajor>() << 1.0, 1.0, -0.28867513459481287, 0.28867513459481287).finished();

static const Eigen::Matrix<double, 3, 3, Eigen::RowMajor> BiGe33 = (Eigen::Matrix<double, 3, 3, Eigen::RowMajor>() << 1.0, 1.0, 1.0, -0.3872983346207417, 0.0, 0.3872983346207417, 0.0666666666666667, -0.08333333333333333, 0.0666666666666667).finished();

static const Eigen::Matrix<double, 2, 3, Eigen::RowMajor> BiGe23 = (Eigen::Matrix<double, 2, 3, Eigen::RowMajor>() << 1.0, 1.0, 1.0, -0.3872983346207417, 0.0, 0.3872983346207417).finished();

#endif /* __BASISFUNCTIONSGUASSPOINTS_HPP */
